<?xml version="1.0"?>
<opencv_storage>
<cascade>
  <stageType>BOOST</stageType>
  <featureType>HAAR</featureType>
  <height>24</height>
  <width>24</width>
  <stageParams>
    <boostType>GAB</boostType>
    <minHitRate>9.9500000476837158e-01</minHitRate>
    <maxFalseAlarm>5.0000000000000000e-01</maxFalseAlarm>
    <weightTrimRate>9.4999999999999996e-01</weightTrimRate>
    <maxDepth>1</maxDepth>
    <maxWeakCount>100</maxWeakCount></stageParams>
  <featureParams>
    <maxCatCount>0</maxCatCount>
    <featSize>1</featSize>
    <mode>BASIC</mode></featureParams>
  <stageNum>12</stageNum>
  <stages>
    <!-- stage 0 -->
    <_>
      <maxWeakCount>1</maxWeakCount>
      <stageThreshold>8.7500000000000000e-01</stageThreshold>
      <weakClassifiers>
        <_>
          <internalNodes>
            0 -1 2 3.9059235714375973e-03</internalNodes>
          <leafValues>
            -1. 8.7500000000000000e-01</leafValues></_></weakClassifiers></_>
    <!-- stage 1 -->
    <_>
      <maxWeakCount>1</maxWeakCount>
      <stageThreshold>9.3548387289047241e-01</stageThreshold>
      <weakClassifiers>
        <_>
          <internalNodes>
            0 -1 14 3.4789167344570160e-02</internalNodes>
          <leafValues>
            -1. 9.3548387289047241e-01</leafValues></_></weakClassifiers></_>
    <!-- stage 2 -->
    <_>
      <maxWeakCount>2</maxWeakCount>
      <stageThreshold>5.9064470231533051e-02</stageThreshold>
      <weakClassifiers>
        <_>
          <internalNodes>
            0 -1 11 1.3565068133175373e-02</internalNodes>
          <leafValues>
            -8.7500000000000000e-01 1.</leafValues></_>
        <_>
          <internalNodes>
            0 -1 6 4.9240853637456894e-02</internalNodes>
          <leafValues>
            -9.4093555212020874e-01 9.4495910406112671e-01</leafValues></_></weakClassifiers></_>
    <!-- stage 3 -->
    <_>
      <maxWeakCount>2</maxWeakCount>
      <stageThreshold>-4.7583051025867462e-02</stageThreshold>
      <weakClassifiers>
        <_>
          <internalNodes>
            0 -1 15 1.0762257874011993e-01</internalNodes>
          <leafValues>
            -9.3548387289047241e-01 1.</leafValues></_>
        <_>
          <internalNodes>
            0 -1 16 4.5191146433353424e-02</internalNodes>
          <leafValues>
            -1. 8.8790082931518555e-01</leafValues></_></weakClassifiers></_>
    <!-- stage 4 -->
    <_>
      <maxWeakCount>1</maxWeakCount>
      <stageThreshold>8.7500000000000000e-01</stageThreshold>
      <weakClassifiers>
        <_>
          <internalNodes>
            0 -1 1 -5.0292976200580597e-02</internalNodes>
          <leafValues>
            8.7500000000000000e-01 -1.</leafValues></_></weakClassifiers></_>
    <!-- stage 5 -->
    <_>
      <maxWeakCount>2</maxWeakCount>
      <stageThreshold>-8.4211178123950958e-02</stageThreshold>
      <weakClassifiers>
        <_>
          <internalNodes>
            0 -1 5 8.9385591447353363e-02</internalNodes>
          <leafValues>
            -9.3103450536727905e-01 8.7096774578094482e-01</leafValues></_>
        <_>
          <internalNodes>
            0 -1 7 1.3773277401924133e-02</internalNodes>
          <leafValues>
            -9.4438159465789795e-01 8.4682327508926392e-01</leafValues></_></weakClassifiers></_>
    <!-- stage 6 -->
    <_>
      <maxWeakCount>2</maxWeakCount>
      <stageThreshold>3.2143529504537582e-02</stageThreshold>
      <weakClassifiers>
        <_>
          <internalNodes>
            0 -1 19 -4.9367990344762802e-02</internalNodes>
          <leafValues>
            1. -8.1818181276321411e-01</leafValues></_>
        <_>
          <internalNodes>
            0 -1 3 -1.2388025410473347e-02</internalNodes>
          <leafValues>
            -9.4009053707122803e-01 8.5032534599304199e-01</leafValues></_></weakClassifiers></_>
    <!-- stage 7 -->
    <_>
      <maxWeakCount>2</maxWeakCount>
      <stageThreshold>-2.3977963626384735e-01</stageThreshold>
      <weakClassifiers>
        <_>
          <internalNodes>
            0 -1 10 7.3309587314724922e-03</internalNodes>
          <leafValues>
            -9.2307692766189575e-01 7.0588237047195435e-01</leafValues></_>
        <_>
          <internalNodes>
            0 -1 17 3.5419368650764227e-03</internalNodes>
          <leafValues>
            -9.4566196203231812e-01 7.4537324905395508e-01</leafValues></_></weakClassifiers></_>
    <!-- stage 8 -->
    <_>
      <maxWeakCount>2</maxWeakCount>
      <stageThreshold>-1.8963070213794708e-01</stageThreshold>
      <weakClassifiers>
        <_>
          <internalNodes>
            0 -1 8 5.0258859992027283e-02</internalNodes>
          <leafValues>
            -9.2592591047286987e-01 7.5757575035095215e-01</leafValues></_>
        <_>
          <internalNodes>
            0 -1 0 7.3538288474082947e-02</internalNodes>
          <leafValues>
            -9.4460082054138184e-01 7.3629522323608398e-01</leafValues></_></weakClassifiers></_>
    <!-- stage 9 -->
    <_>
      <maxWeakCount>2</maxWeakCount>
      <stageThreshold>-1.3743105530738831e-01</stageThreshold>
      <weakClassifiers>
        <_>
          <internalNodes>
            0 -1 18 1.2687072157859802e-02</internalNodes>
          <leafValues>
            -8.6666667461395264e-01 8.6666667461395264e-01</leafValues></_>
        <_>
          <internalNodes>
            0 -1 13 -1.3457316905260086e-02</internalNodes>
          <leafValues>
            7.2923558950424194e-01 -9.4172322750091553e-01</leafValues></_></weakClassifiers></_>
    <!-- stage 10 -->
    <_>
      <maxWeakCount>2</maxWeakCount>
      <stageThreshold>3.7859402596950531e-02</stageThreshold>
      <weakClassifiers>
        <_>
          <internalNodes>
            0 -1 4 9.6107833087444305e-03</internalNodes>
          <leafValues>
            -6.9696968793869019e-01 8.5185188055038452e-01</leafValues></_>
        <_>
          <internalNodes>
            0 -1 12 -1.0935981117654592e-04</internalNodes>
          <leafValues>
            8.1015807390213013e-01 -8.1399244070053101e-01</leafValues></_></weakClassifiers></_>
    <!-- stage 11 -->
    <_>
      <maxWeakCount>2</maxWeakCount>
      <stageThreshold>-1.5485323965549469e-01</stageThreshold>
      <weakClassifiers>
        <_>
          <internalNodes>
            0 -1 20 2.3530710488557816e-02</internalNodes>
          <leafValues>
            -8.6206895112991333e-01 8.0645161867141724e-01</leafValues></_>
        <_>
          <internalNodes>
            0 -1 9 3.8285172195173800e-04</internalNodes>
          <leafValues>
            7.0721572637557983e-01 -1.</leafValues></_></weakClassifiers></_></stages>
  <features>
    <_>
      <rects>
        <_>
          0 3 15 12 -1.</_>
        <_>
          5 3 5 12 3.</_></rects>
      <tilted>0</tilted></_>
    <_>
      <rects>
        <_>
          0 3 18 10 -1.</_>
        <_>
          0 3 9 5 2.</_>
        <_>
          9 8 9 5 2.</_></rects>
      <tilted>0</tilted></_>
    <_>
      <rects>
        <_>
          0 8 12 1 -1.</_>
        <_>
          4 8 4 1 3.</_></rects>
      <tilted>0</tilted></_>
    <_>
      <rects>
        <_>
          0 8 22 4 -1.</_>
        <_>
          11 8 11 4 2.</_></rects>
      <tilted>0</tilted></_>
    <_>
      <rects>
        <_>
          1 13 4 4 -1.</_>
        <_>
          3 13 2 4 2.</_></rects>
      <tilted>0</tilted></_>
    <_>
      <rects>
        <_>
          2 0 17 15 -1.</_>
        <_>
          2 5 17 5 3.</_></rects>
      <tilted>0</tilted></_>
    <_>
      <rects>
        <_>
          3 0 4 21 -1.</_>
        <_>
          3 7 4 7 3.</_></rects>
      <tilted>0</tilted></_>
    <_>
      <rects>
        <_>
          3 2 6 5 -1.</_>
        <_>
          6 2 3 5 2.</_></rects>
      <tilted>0</tilted></_>
    <_>
      <rects>
        <_>
          4 1 17 9 -1.</_>
        <_>
          4 4 17 3 3.</_></rects>
      <tilted>0</tilted></_>
    <_>
      <rects>
        <_>
          5 8 3 2 -1.</_>
        <_>
          6 8 1 2 3.</_></rects>
      <tilted>0</tilted></_>
    <_>
      <rects>
        <_>
          5 12 13 12 -1.</_>
        <_>
          5 16 13 4 3.</_></rects>
      <tilted>0</tilted></_>
    <_>
      <rects>
        <_>
          6 0 1 24 -1.</_>
        <_>
          6 8 1 8 3.</_></rects>
      <tilted>0</tilted></_>
    <_>
      <rects>
        <_>
          7 4 1 6 -1.</_>
        <_>
          7 7 1 3 2.</_></rects>
      <tilted>0</tilted></_>
    <_>
      <rects>
        <_>
          8 18 9 6 -1.</_>
        <_>
          8 21 9 3 2.</_></rects>
      <tilted>0</tilted></_>
    <_>
      <rects>
        <_>
          9 3 14 8 -1.</_>
        <_>
          9 3 7 4 2.</_>
        <_>
          16 7 7 4 2.</_></rects>
      <tilted>0</tilted></_>
    <_>
      <rects>
        <_>
          12 4 12 15 -1.</_>
        <_>
          16 4 4 15 3.</_></rects>
      <tilted>0</tilted></_>
    <_>
      <rects>
        <_>
          12 6 12 11 -1.</_>
        <_>
          16 6 4 11 3.</_></rects>
      <tilted>0</tilted></_>
    <_>
      <rects>
        <_>
          16 0 1 6 -1.</_>
        <_>
          16 3 1 3 2.</_></rects>
      <tilted>0</tilted></_>
    <_>
      <rects>
        <_>
          17 2 4 12 -1.</_>
        <_>
          17 2 2 6 2.</_>
        <_>
          19 8 2 6 2.</_></rects>
      <tilted>0</tilted></_>
    <_>
      <rects>
        <_>
          18 6 6 12 -1.</_>
        <_>
          21 6 3 12 2.</_></rects>
      <tilted>0</tilted></_>
    <_>
      <rects>
        <_>
          20 1 1 21 -1.</_>
        <_>
          20 8 1 7 3.</_></rects>
      <tilted>0</tilted></_></features></cascade>
</opencv_storage>
